ACHIEVE_BY -0.09886185824871063 0.024704720824956894 0.10601698607206345 -0.14803153276443481 0.10546449571847916 -0.20693688094615936 0.0218655988574028 -0.06741224974393845 -0.14641648530960083 -0.006806733086705208 0.05097966268658638 0.057033851742744446 0.14760267734527588 -0.13288931548595428 -0.20505690574645996 0.08436498790979385 0.10502173006534576 -0.19657917320728302 -0.01099476683884859 0.18179553747177124 -0.026808135211467743 0.08512339740991592 0.05803055688738823 -0.14973202347755432 0.1660846620798111 0.04584024101495743 0.08606450259685516 0.02852555178105831 -0.029462900012731552 0.07679319381713867 -0.06701219081878662 -0.11597570776939392 0.17233580350875854 -0.0996931940317154 -0.0763770341873169 0.1796976923942566 -0.09103494882583618 0.1824972927570343 -0.20877674221992493 -0.026062484830617905 0.0840168222784996 -0.14920879900455475 0.19072946906089783 0.12551815807819366 -0.17436739802360535 0.03859741985797882 -0.1949743777513504 0.06581073999404907 -0.14407223463058472 -0.07472389191389084 0.18269596993923187 -0.14824114739894867 -0.13223709166049957 0.03282870724797249 0.11283280700445175 -0.13545086979866028 0.11602378636598587 0.21473702788352966 -0.08252524584531784 -0.022737853229045868 0.1643938571214676 -0.017582949250936508 0.11187291145324707 -0.20093786716461182 -0.11668413877487183 0.14208966493606567 0.13646793365478516 0.10223003476858139 -0.16566969454288483 -0.06390809267759323 -0.05346338823437691 0.1611768901348114 0.08132316172122955 0.1298825889825821 -0.04521933197975159 0.1432730108499527 -0.21205465495586395 -0.19467224180698395 0.06287061423063278 -0.15320643782615662 0.0070128305815160275 -0.15914729237556458 -0.1363929957151413 0.18874667584896088 -0.15904685854911804 -0.19798268377780914 0.1011861115694046 -0.008189335465431213 -0.13877597451210022 -0.018936509266495705 0.0464213602244854 -0.015155632048845291 -0.04759186878800392 0.012195712886750698 -0.11815141886472702 -0.18776147067546844 -0.0455036535859108 -0.02776818908751011 0.06784292310476303 -0.15990647673606873
ASSOCIATE_WITH 0.012914896011352539 -0.19402696192264557 0.06365656107664108 -0.07927527278661728 0.16542847454547882 0.05883871763944626 -0.11622567474842072 0.12370321154594421 -0.08883046358823776 0.026697061955928802 -0.050697531551122665 -0.11361067742109299 0.15371578931808472 -0.09303408116102219 0.16021446883678436 -0.09454260766506195 0.0721248984336853 -0.21629609167575836 -0.103053018450737 -0.12892024219036102 0.04861963167786598 0.1955912560224533 0.19768072664737701 0.16312211751937866 -0.07368400692939758 -0.16113907098770142 0.12269016355276108 0.05710892751812935 -0.12702518701553345 -0.1279551386833191 0.04965125396847725 0.05069734528660774 -0.16902565956115723 0.1674855798482895 0.18408145010471344 -0.04017344117164612 -0.10293108224868774 -0.12530656158924103 0.02593984454870224 -0.03563441336154938 0.13968239724636078 -0.1399349719285965 -0.16620568931102753 0.06652730703353882 0.18964949250221252 0.06059151142835617 0.22219228744506836 0.1541430801153183 -0.08651019632816315 0.10241049528121948 0.06691134721040726 0.014648471027612686 0.1643553525209427 -0.05765509605407715 -0.1413302719593048 -0.14637817442417145 -0.11146866530179977 -0.10269472748041153 0.07808860391378403 -0.0795932486653328 -0.21171098947525024 -0.20583638548851013 -0.13023298978805542 0.04762938991189003 -0.1595889776945114 0.19938433170318604 0.04525786265730858 0.08469530194997787 -0.07036231458187103 0.12919850647449493 -0.1206672340631485 -0.06359347701072693 -0.19966882467269897 -0.13671675324440002 -0.08281216770410538 -0.08310260623693466 -0.036085329949855804 -0.05831330642104149 -0.05798166245222092 -0.18825997412204742 0.1619628220796585 -0.18902984261512756 -0.1362522542476654 -0.08437095582485199 -0.039474714547395706 -0.04448525607585907 0.0028225830756127834 0.025003617629408836 0.12508204579353333 0.09951592981815338 -0.22054113447666168 0.05583343654870987 -0.021402720361948013 0.12548859417438507 0.1063317283987999 0.17780719697475433 0.13680581748485565 -0.14985650777816772 0.00882024597376585 -0.13351963460445404
ATTRIBUTE -0.07280310988426208 -0.137431800365448 0.11050837486982346 0.16154497861862183 -0.20420494675636292 0.010096274316310883 0.15744549036026 0.09782823175191879 0.016455402597784996 0.15439140796661377 -0.06640329211950302 0.1665087640285492 -0.17516733705997467 0.1850666105747223 -0.14208951592445374 -0.16456644237041473 0.0550989992916584 0.02930106222629547 0.003646543947979808 0.17602644860744476 0.10012809187173843 0.058454547077417374 0.0778704509139061 0.06094233691692352 -0.12680019438266754 0.112989641726017 -0.2155183106660843 0.0017759702168405056 0.036343228071928024 -0.1627987027168274 -0.16910438239574432 0.14326941967010498 -0.047578781843185425 0.14987114071846008 0.15235699713230133 0.19495393335819244 0.09477952122688293 -0.17053069174289703 0.08903982490301132 -0.0692337155342102 -0.10839870572090149 0.1875574141740799 0.10151698440313339 0.050764672458171844 -0.058069828897714615 -0.12592293322086334 0.02088412083685398 -0.12480365484952927 -0.14783291518688202 0.14240340888500214 -0.14711113274097443 -0.12596464157104492 0.06637585163116455 0.1717551201581955 -0.09635341912508011 0.1616172194480896 -0.034945689141750336 -0.13370677828788757 0.04081959277391434 0.12907937169075012 -0.12445466220378876 0.12823274731636047 0.07600338011980057 0.17467772960662842 -0.15557900071144104 0.13000428676605225 -0.1058865413069725 -0.07364217936992645 0.12500348687171936 0.04374626278877258 0.10004650056362152 0.11866773664951324 -0.17603479325771332 0.18148410320281982 0.1613857001066208 -0.16455748677253723 0.1536751687526703 -0.14108872413635254 0.14494384825229645 0.1513776183128357 0.11778812110424042 0.11232507228851318 -0.1507004201412201 -0.12008322775363922 0.17400714755058289 -0.11328482627868652 -0.12312381714582443 -0.10706739127635956 0.10090005397796631 0.030227484181523323 -0.17426761984825134 0.10496525466442108 0.17016299068927765 -0.1585184633731842 0.17145936191082 -0.1710503101348877 0.16921596229076385 0.15729984641075134 0.05911722406744957 0.21655572950839996
BASED_ON -0.1920558512210846 0.16262231767177582 0.031868040561676025 0.1512068212032318 0.15126389265060425 -0.10895182937383652 -0.023900233209133148 0.1290387064218521 -0.029295941814780235 -0.17893895506858826 0.2068079710006714 -0.09334942698478699 -0.11363214254379272 -0.08357799053192139 -0.21299059689044952 0.12810838222503662 -0.008954095654189587 0.1568271964788437 0.11805742979049683 0.10447533428668976 0.1862930804491043 -0.08193270862102509 -0.20324593782424927 0.09064532816410065 -0.08904250711202621 -0.14555421471595764 -0.07807645946741104 -0.1528514176607132 0.07839128375053406 -0.1664869636297226 0.09359630942344666 -0.08215391635894775 0.1129319816827774 -0.05624640733003616 -0.14405107498168945 0.03871413692831993 -0.0539768785238266 0.20404866337776184 -0.045384205877780914 -0.007425281684845686 -0.08299200236797333 0.04312112554907799 0.20001961290836334 -0.029875274747610092 -0.04787188023328781 0.07505136728286743 -0.11380194127559662 -0.12085436284542084 -0.056687112897634506 0.19181612133979797 -0.11051582545042038 -0.0185701921582222 0.12751948833465576 -0.02076471783220768 0.1462918519973755 -0.10710778832435608 -0.0490151084959507 -0.10002661496400833 -0.050016727298498154 0.1775372177362442 0.20800763368606567 0.08935859054327011 0.06011069938540459 0.17178213596343994 -0.1672288477420807 -0.02349882572889328 -0.03142603486776352 0.07897783070802689 0.0993344709277153 0.20357592403888702 -0.09110808372497559 -0.02840409055352211 0.1397075057029724 0.16663774847984314 0.1376218944787979 0.093366339802742 0.10738178342580795 -0.010889560915529728 0.1922183781862259 0.1287745237350464 -0.10120592266321182 0.1363186091184616 0.1922166496515274 0.1425880342721939 -0.014991736970841885 0.017363443970680237 -0.1324770301580429 0.08502834290266037 -0.030418967828154564 -0.2015809267759323 0.056174181401729584 -0.1309628039598465 -0.0459480956196785 -0.04848049581050873 -0.17588406801223755 0.048847220838069916 -0.04406370222568512 0.13115835189819336 -0.07701238244771957 -0.13306204974651337
BELONG -0.1546192616224289 -0.13743488490581512 -0.10846495628356934 -0.17202718555927277 0.10201837867498398 -0.14648374915122986 -0.1121034175157547 -0.1436782032251358 0.09722409397363663 -0.17623114585876465 -0.11201014369726181 0.012352383695542812 0.17017123103141785 -0.1450466811656952 -0.1828596442937851 -0.15180008113384247 -0.08781833946704865 -0.18951353430747986 0.06551000475883484 0.0946812704205513 -0.015437781810760498 0.156905397772789 -0.12637396156787872 0.16999439895153046 -0.1735847443342209 -0.12242412567138672 0.07135658711194992 0.024479808285832405 -0.05922088027000427 -0.14598532021045685 0.173382967710495 -0.07260919362306595 0.1722804754972458 0.0012958396691828966 0.07147469371557236 0.0904289036989212 -0.10253717750310898 -0.10856536030769348 0.07632184028625488 -0.014471380040049553 0.02603071555495262 -0.09845728427171707 -0.177498459815979 -0.0654120147228241 -0.167283833026886 0.14372563362121582 0.11903239786624908 -0.18499349057674408 -0.1210278794169426 -0.004727920517325401 0.16696524620056152 -0.0796167328953743 0.1666300743818283 0.146117702126503 0.1324995905160904 -0.0024122162722051144 0.040823254734277725 -0.09902197867631912 0.014024199917912483 -0.1502779871225357 -0.09758361428976059 -0.10708531737327576 -0.14500227570533752 0.12729614973068237 0.11420556157827377 -0.0006153024733066559 -0.06746352463960648 0.09805590659379959 -0.17759054899215698 0.16745321452617645 -0.15584111213684082 -0.09437213093042374 0.13811048865318298 0.033410511910915375 0.17029079794883728 0.17778250575065613 -0.00938646961003542 -0.10826074331998825 0.0239986851811409 -0.11151900887489319 0.16045257449150085 -0.14002308249473572 0.09420673549175262 -0.13661982119083405 -0.11534002423286438 -0.12676024436950684 0.111653633415699 0.08272229880094528 -0.12276928126811981 0.0976499542593956 -0.1757075935602188 0.06916346400976181 -0.11615844815969467 -0.19389528036117554 -0.09102457016706467 -0.13439269363880157 -0.09043549001216888 0.06783117353916168 0.16945615410804749 -0.14223892986774445
CAUSE 0.18998199701309204 0.09221454709768295 -0.07984201610088348 0.08917063474655151 0.19627141952514648 -0.20332814753055573 0.08661599457263947 0.1189197525382042 0.02007060870528221 0.17822957038879395 -0.018646622076630592 0.11406296491622925 -0.055133506655693054 -0.06836561113595963 -0.21821638941764832 0.1509556621313095 0.1406775861978531 -0.16060632467269897 -0.15935876965522766 -0.10396785289049149 0.18211986124515533 -0.1693926453590393 -0.08612464368343353 -0.02174646221101284 0.2014755755662918 0.14393281936645508 -0.18663425743579865 0.1930897980928421 0.12807568907737732 -0.09710783511400223 0.11008506268262863 0.20097540318965912 -0.1033250018954277 0.08569110929965973 0.0812605619430542 -0.19984407722949982 -0.06501805782318115 0.1594262272119522 -0.2058776468038559 -0.10367869585752487 -0.08977063000202179 0.05756130814552307 0.04792823642492294 -0.16020236909389496 -0.14241094887256622 0.032820653170347214 0.0034224558621644974 -0.17113344371318817 0.014777951873838902 0.06349072605371475 -0.03274576738476753 -0.01975077949464321 -0.08466889709234238 -0.12723518908023834 -0.04918166622519493 0.18784524500370026 0.11089783161878586 -0.17640063166618347 0.04679624363780022 -0.0364827886223793 -0.015877509489655495 0.00778101896867156 0.19929523766040802 0.14969806373119354 -0.18640005588531494 -0.1927189826965332 0.05348877236247063 0.04258684441447258 -0.0462675541639328 -0.09771998971700668 -0.009324580430984497 -0.02523355558514595 0.05842578411102295 -0.03684438392519951 0.12387477606534958 -0.12028311938047409 0.09126035869121552 0.007396298926323652 -0.020888840779662132 0.19434720277786255 0.21292033791542053 -0.09182361513376236 -0.0824822187423706 0.19138085842132568 0.20653414726257324 -0.2050548493862152 0.1629248410463333 0.001605828176252544 0.0751398354768753 -0.21053747832775116 -0.132704958319664 -0.12778879702091217 -0.16301795840263367 0.018668612465262413 -0.02321702428162098 -0.2023424357175827 0.0410473607480526 0.1380022019147873 0.059239618480205536 0.2202533781528473
CHECK_NEXT -0.13989217579364777 0.1511264443397522 -0.09828425943851471 -0.05762195214629173 -0.09484048187732697 -0.09252661466598511 -0.1889316290616989 -0.050487928092479706 0.0001954818144440651 0.022136051207780838 -0.1307559460401535 0.02500157803297043 0.15790089964866638 0.0034907576628029346 0.14384666085243225 0.07852290570735931 0.1483597606420517 -0.17093299329280853 -0.16258950531482697 -0.07626313716173172 0.1540437787771225 0.018711678683757782 0.05747295543551445 0.09906809777021408 -0.15443797409534454 0.08218180388212204 0.1790274828672409 0.14218485355377197 -0.18058139085769653 0.06929153203964233 -0.1360933929681778 -0.09748409688472748 0.14883561432361603 0.1116531640291214 0.17978034913539886 0.11705725640058517 -0.09284594655036926 0.00989413820207119 0.008489818312227726 -0.17426902055740356 -0.16158224642276764 0.19222262501716614 -0.1741982251405716 -0.14731235802173615 -0.19687634706497192 0.16780968010425568 0.038485266268253326 -0.10665582120418549 0.0480208545923233 -0.1631312519311905 0.19868755340576172 0.1770210713148117 -0.03257574886083603 -0.02896011807024479 0.19504910707473755 -0.14531181752681732 0.022709697484970093 -0.19675420224666595 0.06579913198947906 0.11617665737867355 0.12385544925928116 0.0231948159635067 0.15698975324630737 -0.09556412696838379 0.12040922045707703 0.01399768516421318 0.11150730401277542 -0.0838410034775734 0.045842044055461884 -0.2042725533246994 -0.13933734595775604 0.04485219344496727 -0.14749570190906525 -0.10258174687623978 0.12004777044057846 -0.1692202240228653 -0.18997551500797272 0.12429492175579071 0.020403021946549416 -0.19565369188785553 0.055496715009212494 -0.16423481702804565 -0.035659078508615494 -0.18743771314620972 -0.0025789905339479446 0.08377070724964142 0.11230362951755524 -0.04748660698533058 -0.12497557699680328 -0.09010826051235199 0.1085403710603714 0.09929011017084122 -0.03797226771712303 -0.12387702614068985 -0.19548945128917694 0.09933935850858688 0.06735378503799438 -0.1798143982887268 -0.11630576848983765 -0.16324825584888458
CONFLICT_WITH -0.01175733096897602 0.16850343346595764 -0.19444063305854797 -0.11752193421125412 -0.022827450186014175 0.10342229157686234 -0.07893224060535431 0.10837993770837784 -0.026607422158122063 -0.15565155446529388 0.19570322334766388 -0.02372194640338421 0.1775599867105484 0.21445079147815704 0.16759714484214783 0.013131155632436275 0.01527287159115076 0.09345763176679611 0.20022040605545044 -0.03703927621245384 0.1626616269350052 -0.14480075240135193 -0.04840035364031792 -0.043984346091747284 0.1089024692773819 0.12578335404396057 0.03253358602523804 -0.1377342790365219 -0.030916213989257812 -0.12318834662437439 -0.0953112319111824 0.13596320152282715 -0.17969615757465363 0.19577214121818542 0.07805485278367996 0.14723098278045654 0.15604059398174286 -0.18733513355255127 0.1459745317697525 0.04914184287190437 0.04314041882753372 -0.1318458765745163 0.20760631561279297 -0.18321539461612701 -0.11623606830835342 -0.1716637909412384 0.03338947147130966 0.14930208027362823 0.02699349820613861 0.02863241545855999 -0.00893370434641838 0.17441099882125854 -0.08764393627643585 0.013086497783660889 -0.156330868601799 -0.04575205594301224 0.16723382472991943 -0.11248913407325745 -0.11985642462968826 0.14107780158519745 0.0629192590713501 0.07392445206642151 -0.19866985082626343 -0.09158434718847275 0.06555535644292831 -0.0961015522480011 0.05632263422012329 0.19932304322719574 -0.20719574391841888 -0.0361756831407547 -0.1728772073984146 0.15697287023067474 -0.20126114785671234 0.11957106739282608 -0.2041558176279068 -0.03893548622727394 0.14181065559387207 0.11009646207094193 0.0386299192905426 0.030828015878796577 -0.014763493090867996 -0.05879499018192291 0.17934153974056244 -0.0665876492857933 0.06625593453645706 -0.14102144539356232 -0.20166251063346863 -0.20265306532382965 -0.19874900579452515 -0.0667249783873558 0.17243394255638123 -0.10201955586671829 -0.014204597100615501 -0.1231531947851181 0.12626811861991882 0.15104469656944275 -0.1830870807170868 0.05103711038827896 0.18514440953731537 0.16532476246356964
CONSIST_OF 0.04311447963118553 -0.03914647921919823 0.05467378720641136 -0.0280788391828537 0.008906221948564053 -0.1830248236656189 0.16836769878864288 0.034780021756887436 -0.1745772808790207 0.1931149810552597 -0.06449729204177856 -0.018280455842614174 -0.0008539097616448998 0.1393166482448578 -0.07070484012365341 0.05884791910648346 0.12006807327270508 -0.001911716302856803 -0.0922691747546196 -0.1201060339808464 0.17510318756103516 0.10819579660892487 0.049280717968940735 0.1736612468957901 0.12600867450237274 0.14983414113521576 -0.18840011954307556 -0.11397075653076172 0.19442105293273926 0.0651448518037796 0.045561373233795166 -0.15446341037750244 0.1340465545654297 0.15788032114505768 0.11943389475345612 -0.06904418766498566 0.11996761709451675 0.14305070042610168 0.03680884465575218 0.10447264462709427 0.09543011337518692 0.1451435387134552 0.18615111708641052 0.20080432295799255 0.16354282200336456 0.17037764191627502 -0.11424798518419266 -0.0006432369700632989 -0.14430518448352814 -0.14515157043933868 -0.0418696254491806 0.0038309558294713497 -0.19206446409225464 -0.10828838497400284 0.1571405977010727 0.11429035663604736 0.03061862476170063 -0.12241410464048386 -0.19056715071201324 0.07362743467092514 -0.04808880388736725 -0.20510101318359375 -0.0015310227172449231 0.10786315053701401 0.1776757836341858 0.06567875295877457 -0.20627251267433167 -0.08412930369377136 -0.08338736742734909 -0.20564423501491547 0.12768492102622986 -0.1585644632577896 0.000866355374455452 -0.10242470353841782 0.01398548949509859 0.15640921890735626 0.025189721956849098 0.21044990420341492 0.004606886301189661 -0.17868705093860626 0.13675029575824738 0.04932551831007004 0.15430784225463867 -0.06512666493654251 -0.08558394759893417 0.07720692455768585 -0.12452547997236252 -0.11404403299093246 0.01696321927011013 0.11808852106332779 -0.13383448123931885 0.14429353177547455 -0.14904987812042236 -0.0809987261891365 -0.0642160102725029 -0.11107788234949112 0.1593059003353119 -0.19635389745235443 0.10258186608552933 -0.05984510853886604
CORRESPOND_WITH 0.12043078243732452 0.1832187920808792 -0.011853959411382675 -0.10576143860816956 0.12651382386684418 0.05644375458359718 0.07702193409204483 -0.009451275691390038 -0.19142456352710724 -0.20358102023601532 0.042886942625045776 0.062674380838871 -0.012422970496118069 -0.126972958445549 -0.07964363694190979 0.05842384696006775 0.050605349242687225 -0.03412822261452675 -0.038739584386348724 0.0807647556066513 0.051468390971422195 -0.1210312768816948 -0.18706463277339935 -0.025876158848404884 0.16197092831134796 0.005284563638269901 0.04339095205068588 0.18168243765830994 -0.16728998720645905 -0.12386917322874069 0.16714933514595032 -0.05417889729142189 -0.07979601621627808 0.06634364277124405 0.018373768776655197 -0.14497323334217072 -0.07215496897697449 -0.03612673282623291 0.008261928334832191 -0.025184912607073784 0.11277193576097488 0.09547638148069382 -0.09744268655776978 0.11567553877830505 -0.10206933319568634 0.15626844763755798 0.03804929926991463 -0.14252054691314697 -0.1251891851425171 0.18140368163585663 0.00012686444097198546 0.13988690078258514 0.09078552573919296 0.13559405505657196 0.12263914942741394 0.12419780343770981 0.041736528277397156 0.147826686501503 0.15735723078250885 -0.029740670695900917 -0.12279076129198074 0.036801282316446304 0.025859743356704712 0.16800956428050995 0.0906539261341095 0.029775192961096764 -0.05234827846288681 0.0726708397269249 -0.2080904096364975 0.17509108781814575 -0.030700722709298134 0.08560685068368912 -0.16495727002620697 0.11133258789777756 -0.0648387223482132 -0.02601672150194645 0.01829543709754944 0.001775710261426866 -0.10733914375305176 -0.09085766226053238 0.06580193340778351 -0.2011653482913971 0.07132333517074585 -0.20696353912353516 0.0063697160221636295 -0.09433848410844803 -0.10916402190923691 0.1547660529613495 0.1586003452539444 -0.11804617196321487 0.006330684758722782 0.08825580030679703 0.1599925011396408 -0.08419282734394073 -0.1774023175239563 -0.0017875083722174168 0.1389922946691513 0.015047688968479633 -0.09469959139823914 0.11049815267324448
DEPEND_ON 0.07666032761335373 -0.05849602073431015 -0.10172221064567566 -0.2023043930530548 -0.022538628429174423 -0.017324596643447876 -0.21533913910388947 0.08796074986457825 -0.1343165785074234 -0.1857908070087433 0.17141371965408325 -0.08927063643932343 0.16683197021484375 -0.07244040071964264 -0.16080181300640106 -0.1646757572889328 -0.1430055946111679 -0.1389068216085434 0.0758129209280014 0.12562009692192078 -0.16762927174568176 0.030366182327270508 0.11593801528215408 0.04955733194947243 0.08808648586273193 0.02614660933613777 -0.16772545874118805 0.14704404771327972 0.10319165140390396 -0.06463008373975754 0.024571483954787254 -0.13902685046195984 0.17309492826461792 0.09331222623586655 0.07677584141492844 0.0925927609205246 0.19734817743301392 -0.1356423944234848 -0.098821721971035 -0.03639515861868858 0.13005593419075012 -0.06181696802377701 0.1349441558122635 -0.08052194863557816 0.11532081663608551 0.10551848262548447 -0.19538863003253937 -0.12590430676937103 -0.0342990905046463 0.12179728597402573 -0.10621168464422226 -0.16560590267181396 0.09315566718578339 -0.096746064722538 -0.13102522492408752 0.21145862340927124 0.17339099943637848 0.08788134157657623 -0.08692291378974915 -0.1226089596748352 0.13838878273963928 0.08735974133014679 0.11344975978136063 -0.028998389840126038 0.042776744812726974 -0.061020441353321075 -0.1828879415988922 -0.185614213347435 0.18192234635353088 0.03520534560084343 -0.10740910470485687 0.020452504977583885 0.02956056408584118 -0.0012586457887664437 -0.00741136260330677 -0.1346597671508789 -0.18355989456176758 -0.14862769842147827 0.1335144340991974 0.07444287091493607 -0.06861859560012817 0.07874254137277603 -0.10999278724193573 0.19329994916915894 0.14846296608448029 -0.13886715471744537 0.09395485371351242 0.14689016342163086 -0.024101262912154198 0.09561082720756531 0.018136795610189438 0.046318866312503815 0.024762682616710663 -0.03744957968592644 -0.010171650908887386 -0.21186833083629608 0.09495268762111664 -0.08520019054412842 -0.1851964145898819 -0.0603601299226284
ENTITY_OF 0.23409657180309296 0.2358650118112564 -0.16521242260932922 0.17771856486797333 -0.11819984763860703 -0.20267051458358765 -0.034076523035764694 0.1008460521697998 -0.20398922264575958 -0.10524272918701172 0.023604780435562134 0.014962228946387768 0.1891011893749237 -0.052196204662323 0.12133017182350159 -0.18788249790668488 -0.13407330214977264 -0.06652594357728958 0.12102340161800385 -0.07241296023130417 0.10318512469530106 -0.1872420758008957 -0.014690961688756943 0.055518344044685364 -0.10241170972585678 -0.01452571526169777 0.21290402114391327 -0.051576878875494 0.21834617853164673 -0.11283870786428452 -0.20794595777988434 0.07787103205919266 -0.2015085071325302 0.13475656509399414 -0.012394466437399387 0.04727838933467865 -0.04709477350115776 -0.11475136876106262 -0.09965944290161133 -0.1457635760307312 0.16361446678638458 -0.14646093547344208 0.087225042283535 0.14100854098796844 -0.09579357504844666 -0.09387332946062088 0.13992823660373688 0.23019462823867798 -0.17903946340084076 -0.16813543438911438 0.027037451043725014 -0.17783358693122864 0.1285119205713272 0.12894079089164734 0.04805174097418785 -0.08721986413002014 0.23309892416000366 0.21381394565105438 0.11407297849655151 -0.005527450703084469 -0.07087286561727524 -0.023436984047293663 -0.19495037198066711 0.0824623629450798 0.08430283516645432 0.014695818535983562 -0.1684122234582901 0.006895454600453377 -0.024426627904176712 -0.2426188886165619 -0.06453989446163177 -0.12090373784303665 -0.03623657673597336 0.1525314599275589 -0.13034559786319733 -0.16993319988250732 0.17282158136367798 -0.03765617311000824 0.058416228741407394 0.06427616626024246 0.16915813088417053 0.038107722997665405 0.2072215974330902 0.06331023573875427 -0.19876335561275482 0.17230594158172607 -0.06564649939537048 -0.04585513845086098 -0.03757629171013832 0.0019955765455961227 0.05071959272027016 0.08624295890331268 0.15986321866512299 0.0766831636428833 -0.14750881493091583 0.014185766689479351 -0.05202536657452583 -0.01372789777815342 -0.17349107563495636 -0.026106908917427063
EXECUTED_BY -0.01029194612056017 -0.1007285788655281 0.0469655878841877 0.010213188827037811 0.21244162321090698 -0.16390962898731232 0.02315833792090416 -0.13384327292442322 0.0035230328794568777 -0.1410604864358902 -0.1494443565607071 0.06270267814397812 0.17125031352043152 0.13714750111103058 0.06488002091646194 -0.019441546872258186 -0.13478733599185944 -0.07696332782506943 -0.12609700858592987 -0.04824357479810715 0.0230298712849617 0.0973106101155281 0.1040080264210701 0.097634457051754 -0.07498995214700699 -0.12622299790382385 0.1580733358860016 0.029177546501159668 0.015430683270096779 0.02528275176882744 0.04954533651471138 -0.15674737095832825 0.09605158120393753 0.044882748275995255 -0.08387186378240585 0.205157071352005 -0.2565711438655853 -0.0871291309595108 -0.05695563182234764 -0.023586349561810493 0.021420566365122795 0.09446415305137634 0.02206682600080967 -0.04914627596735954 -0.019630860537290573 -0.16282106935977936 -0.029336195439100266 -0.07475994527339935 -0.07754861563444138 0.0948314368724823 -0.05567215383052826 -0.11473026871681213 -0.11540018022060394 -0.1272130161523819 -0.0872839018702507 -0.043359141796827316 0.08223187923431396 0.007242448162287474 0.14600221812725067 0.04655155912041664 -0.11496981233358383 0.011547036468982697 0.13435107469558716 0.23207662999629974 -0.04882276803255081 0.0009842023719102144 0.10365089029073715 -0.0696021318435669 -0.1444827914237976 0.0024164968635886908 -0.2290065437555313 -0.15379174053668976 0.012196743860840797 -0.08007930964231491 0.03047008067369461 0.02628267928957939 -0.13298307359218597 0.017296399921178818 -0.13970693945884705 -0.0797380730509758 -0.12285696715116501 -0.21557439863681793 -0.08141890913248062 0.07401590794324875 0.08371797949075699 0.1795939803123474 -0.007346746511757374 -0.09245584905147552 -0.13513153791427612 0.09352757036685944 -0.13543514907360077 -0.17745377123355865 -0.11599664390087128 0.0863623097538948 -0.1270618587732315 0.12478772550821304 -0.24138571321964264 -0.13434761762619019 0.026776477694511414 -0.2483387291431427
EXECUTED_IF 0.1541830599308014 0.03233964368700981 -0.028462085872888565 0.057030417025089264 0.03562184050679207 0.10086235404014587 -0.06247326731681824 0.1297028809785843 0.007642691023647785 -0.03547387942671776 -0.0481700636446476 -0.1264755129814148 0.0626373142004013 0.19639138877391815 -0.010011827573180199 0.08064843714237213 0.10361159592866898 0.19202820956707 0.07506365329027176 -0.021250532940030098 0.06230539083480835 0.14113551378250122 0.07774831354618073 -0.20369158685207367 0.06810251623392105 0.16924409568309784 -0.022483471781015396 -0.19711445271968842 -0.032416991889476776 0.20555682480335236 0.08078306913375854 -0.08456907421350479 -0.005180215463042259 0.011808786541223526 0.039762407541275024 0.03642647713422775 -0.20290005207061768 0.0384213849902153 -0.1517975777387619 0.030061032623052597 0.1278354823589325 0.03401678055524826 -0.20857205986976624 -0.007571224123239517 0.11159874498844147 0.1319109946489334 -0.10996761918067932 -0.10580716282129288 0.00552090909332037 0.16442027688026428 -0.020265629515051842 0.1129615306854248 0.05262120068073273 0.07459937781095505 -0.044218070805072784 -0.18202358484268188 -0.020022490993142128 -0.2059188038110733 -0.2044801563024521 -0.17973443865776062 -0.0021262431982904673 0.1670287847518921 -0.030527601018548012 -0.09630666673183441 -0.16033507883548737 -0.17739394307136536 -0.18337145447731018 -0.1088794693350792 -0.12027725577354431 0.05691909417510033 0.014602847397327423 0.14469315111637115 0.12727971374988556 0.005523113068193197 -0.06146889552474022 -0.16440308094024658 -0.18065299093723297 0.1240982711315155 0.17385350167751312 -0.03023163601756096 -0.144943505525589 0.09272795915603638 -0.06799380481243134 -0.08560263365507126 0.1854681521654129 0.207314595580101 0.08991915732622147 -0.19838681817054749 -0.027899976819753647 -0.20215174555778503 -0.20570354163646698 -0.09344984591007233 0.14950257539749146 0.032413192093372345 -0.04609600454568863 0.10186872631311417 0.14652955532073975 0.20824380218982697 0.18050459027290344 0.1610054224729538
FULFILL 0.1053297370672226 0.14469388127326965 0.14769087731838226 0.18076758086681366 0.14299291372299194 0.031031161546707153 -0.13160330057144165 0.18818509578704834 -0.011750200763344765 -0.1527167111635208 -0.04085777327418327 0.06884656846523285 0.1822824627161026 -0.07748254388570786 -0.183449849486351 0.08011273294687271 -0.07971584796905518 -0.021670496091246605 -0.027650626376271248 -0.0574207529425621 0.09558547288179398 -0.024758843705058098 -0.1103961169719696 -0.020748009905219078 0.058967698365449905 -0.131186842918396 0.07680342346429825 0.1398027092218399 -0.07665160298347473 -0.19474852085113525 0.19701138138771057 0.0711802989244461 -0.19826434552669525 -0.0251951701939106 -0.02972949668765068 -0.14433637261390686 0.08107110857963562 -0.16132110357284546 0.1576678603887558 -0.11665450036525726 -0.12685774266719818 0.14857517182826996 0.03984520211815834 0.14395083487033844 -0.20452187955379486 0.20713087916374207 0.06016926467418671 0.19522851705551147 -0.08787733316421509 0.03502160310745239 -0.009210598655045033 0.06539691239595413 -0.21161973476409912 -0.19674158096313477 0.1529269963502884 -0.1988217532634735 0.12377206981182098 -0.08490724861621857 -0.11019544303417206 -0.036942679435014725 -0.08812175691127777 0.02144605852663517 0.11906043440103531 -0.1489010453224182 -0.12995783984661102 0.20698067545890808 0.06765048205852509 -0.12748605012893677 0.20460885763168335 -0.1250641793012619 -0.1585918664932251 -0.15165606141090393 0.0458359494805336 0.04029630497097969 -0.11822554469108582 -0.1156541034579277 0.00552339619025588 -0.08777003735303879 -0.10688389837741852 -0.09289788454771042 0.06516354531049728 0.011938986368477345 -0.1651044636964798 0.023107560351490974 0.1145753264427185 0.10240433365106583 0.16146661341190338 -0.1719222068786621 0.20889092981815338 -0.003427344374358654 0.060600075870752335 0.038595590740442276 -0.09290248900651932 0.024250052869319916 -0.13803638517856598 0.014702114276587963 -0.1619786024093628 -0.045110005885362625 -0.03084464557468891 -0.14927919209003448
HAS 0.11881180107593536 0.04828973859548569 -0.0730486810207367 0.015017175115644932 0.12729139626026154 -0.015161845833063126 -0.1610780656337738 0.20104382932186127 -0.1373371034860611 -0.13291814923286438 -0.11476599425077438 0.15233832597732544 0.16956454515457153 0.053281139582395554 0.05577477440237999 0.12305130064487457 0.125650092959404 0.175672248005867 -0.026408154517412186 0.13983382284641266 -0.07190597057342529 0.060129497200250626 0.09345246851444244 0.16464516520500183 -0.14253899455070496 -0.16580608487129211 0.13411764800548553 -0.020621104165911674 0.020981542766094208 -0.18709872663021088 -0.2032710760831833 0.033990152180194855 0.05425925925374031 0.06035923585295677 -0.18914492428302765 -0.07079339772462845 -0.13554096221923828 0.1490383744239807 0.19465994834899902 0.015579719096422195 0.05405597388744354 -0.13193054497241974 -0.12006570398807526 -0.1549178659915924 -0.08546179533004761 0.05908152833580971 -0.17777489125728607 -0.08685196936130524 -0.08089665323495865 -0.15780001878738403 0.041824858635663986 0.04324309900403023 -0.15974833071231842 -0.08400154113769531 0.18343333899974823 0.07770337909460068 0.0436757355928421 -0.020926501601934433 -0.08935433626174927 0.10401997715234756 0.17620187997817993 -0.10781279951334 -0.08556308597326279 0.09691224247217178 -0.15649165213108063 0.20981593430042267 -0.16582494974136353 -0.0008607303025200963 0.15278631448745728 -0.1017058864235878 -0.1874498575925827 -0.14127075672149658 -0.14430703222751617 0.205492302775383 0.0898439884185791 -0.18787145614624023 -0.06456635892391205 0.11531795561313629 0.19935251772403717 -0.12786228954792023 0.010845991782844067 -0.08917738497257233 -0.12218324840068817 -0.10203495621681213 -0.052536580711603165 -0.08955664932727814 0.1884438544511795 -0.122802734375 -0.10910641402006149 -0.046944357454776764 0.0444025881588459 0.1967228800058365 0.16486075520515442 0.09930697083473206 0.16236741840839386 -0.11068125814199448 0.012815887108445168 -0.022351812571287155 0.09503787010908127 0.1162286102771759
HAS_ALARM -0.08387985825538635 0.10998697578907013 -0.20276783406734467 -0.09283849596977234 -0.1364210993051529 -0.1535637080669403 0.05993829667568207 -0.16503509879112244 0.17783011496067047 -0.20477616786956787 0.11841768771409988 -0.13710185885429382 -0.12256680428981781 0.15564362704753876 -0.15714582800865173 0.16826844215393066 -0.11060518026351929 0.018304457888007164 0.17022491991519928 0.03291213512420654 0.1562223881483078 0.047697167843580246 -0.0034023455809801817 0.2113649845123291 0.04157908260822296 0.10228141397237778 -0.061630573123693466 0.16462436318397522 -0.1424337774515152 0.04906981810927391 -0.08498255163431168 0.09988714009523392 0.05169887840747833 -0.013419021852314472 -0.008439769968390465 0.07620718330144882 -0.13250267505645752 0.019501980394124985 0.003421703353524208 -0.18202371895313263 -0.1680401861667633 0.028019366785883904 0.20209667086601257 0.009929086081683636 0.016730897128582 0.07535324990749359 -0.12004632502794266 0.1520581692457199 -0.05143050476908684 0.11459919065237045 -0.10583392530679703 0.14319837093353271 0.09056352078914642 -0.031169135123491287 -0.01682223565876484 -0.10805811733007431 -0.15380023419857025 0.09828805923461914 0.01960046961903572 0.03443843126296997 -0.15153326094150543 0.2062874734401703 -0.1301587074995041 -0.09794668108224869 0.009062952362000942 0.1495731621980667 -0.12923288345336914 0.051571667194366455 -0.01242041029036045 -0.05849745124578476 0.04586499184370041 -0.002664022846147418 -0.012789104133844376 -0.029592595994472504 -0.018672972917556763 0.00028565048705786467 -0.20410314202308655 0.08020476996898651 -0.10941694676876068 -0.13635289669036865 0.14334405958652496 0.20484571158885956 0.16474929451942444 -0.01823078840970993 0.1306394338607788 -0.12188553065061569 0.17534904181957245 0.0926523506641388 -0.16308742761611938 0.03282113000750542 -0.1737593561410904 0.09770102798938751 -0.20551179349422455 0.1659931242465973 -0.0662563145160675 -0.17003659904003143 -0.07950303703546524 0.14253294467926025 0.09698671102523804 -0.05171625688672066
HAS_CHILDMO 0.14578378200531006 -0.04124414548277855 -0.20658189058303833 0.1508282721042633 -0.09233219176530838 -0.1436283141374588 0.0454704686999321 0.07391668856143951 0.09032540023326874 -0.11866449564695358 0.21222157776355743 -0.20366233587265015 0.006690651644021273 -0.060953471809625626 0.014152968302369118 0.03429662808775902 0.026340628042817116 0.013867398723959923 0.19763143360614777 -0.10489282757043839 0.1626926213502884 0.12306094914674759 -0.14141082763671875 0.14726407825946808 0.1185840591788292 -0.11385515332221985 -0.21310222148895264 0.022406037896871567 0.06963891535997391 -0.13222025334835052 -0.10057520866394043 0.030454259365797043 -0.01601162739098072 0.024817395955324173 -0.0010213854257017374 0.14790628850460052 0.1903417855501175 -0.0697113573551178 -0.12363139539957047 0.026024315506219864 -0.1362324059009552 0.10093443095684052 0.07635802775621414 -0.17203067243099213 0.052593622356653214 0.21385492384433746 0.06491296738386154 -0.14036612212657928 -0.021174231544137 -0.22709590196609497 -0.14882595837116241 0.05113830044865608 0.07684532552957535 0.03119453601539135 0.17163240909576416 0.18145309388637543 0.05960199236869812 -0.19994011521339417 -0.12100162357091904 -0.062071532011032104 -0.1261567920446396 0.18848438560962677 -0.12359495460987091 0.021425331011414528 -0.07638292014598846 -0.1389758437871933 -0.13580581545829773 0.2001650333404541 0.0868724137544632 0.01931731589138508 0.13410772383213043 0.16747429966926575 0.14453335106372833 0.03832820802927017 -0.13706271350383759 -0.20168568193912506 0.09754517674446106 -0.16676115989685059 0.1301267445087433 0.1810760498046875 0.02383958175778389 0.2100880742073059 -0.17612451314926147 0.08340299874544144 -0.10720545053482056 -0.06328635662794113 0.03398236632347107 0.18910162150859833 -0.13996504247188568 -0.06066916882991791 -0.07414261996746063 -0.09181441366672516 -0.15339021384716034 -0.17827612161636353 0.17466631531715393 0.13562479615211487 0.049949340522289276 0.08276855200529099 -0.10244835913181305 0.22810640931129456
HAS_CONFLICT 0.14576637744903564 0.061007555574178696 0.06910218298435211 0.14963489770889282 -0.148973286151886 -0.02889898046851158 -0.10789060592651367 -0.053105052560567856 -0.1724199801683426 0.030818616971373558 0.1327049285173416 -0.0580546036362648 -0.11277350038290024 0.09591281414031982 -0.027189237996935844 0.196721151471138 -0.04209727421402931 -0.027280569076538086 -0.09318970888853073 0.1380394548177719 -0.09020854532718658 0.018280135467648506 0.10465493053197861 0.04354162514209747 0.14740104973316193 0.0708351880311966 -0.20258863270282745 -0.04986535757780075 0.19078515470027924 -0.20812177658081055 -0.10760911554098129 -0.01030793972313404 -0.030592529103159904 0.12676356732845306 0.04058317095041275 -0.2112024575471878 0.11155833303928375 -0.03490908443927765 -0.005296375136822462 0.1781253218650818 -0.0111535107716918 0.030265197157859802 -0.016463695093989372 0.02948291040956974 0.13260792195796967 0.14053331315517426 0.1238277480006218 -0.15212944149971008 0.1862170696258545 0.030306676402688026 0.1925923079252243 0.16887712478637695 -0.07316946238279343 -0.005940551869571209 -0.03143010288476944 -0.10424382984638214 -0.14768601953983307 -0.18440625071525574 -0.14666827023029327 -0.11124636977910995 -0.18075302243232727 0.057428713887929916 0.1753515750169754 0.2120455950498581 -0.05223049968481064 0.026921352371573448 0.09485785663127899 -0.027057930827140808 0.013319064863026142 0.0485328733921051 0.001178673468530178 0.12064515054225922 -0.10548095405101776 0.06753068417310715 0.14760497212409973 -0.12236131727695465 -0.09521856158971786 -0.04809724912047386 -0.07925458252429962 -0.08715920150279999 -0.027424268424510956 0.025004958733916283 -0.13982431590557098 0.1225271224975586 0.026760606095194817 -0.09086564928293228 0.15908955037593842 0.21558667719364166 0.19130846858024597 -0.08682803064584732 -0.16856172680854797 -0.14457601308822632 -0.183368980884552 0.11635041981935501 0.032322123646736145 -0.06102747470140457 -0.0069259535521268845 0.10494663566350937 -0.1960262507200241 0.20025211572647095
HAS_COUNTERSET -0.12830637395381927 -0.14486290514469147 -0.14970362186431885 0.1162882074713707 -0.1828182339668274 0.1446784883737564 0.17067712545394897 -0.04789062589406967 -0.00011948175961151719 0.12479603290557861 0.055322129279375076 0.03196458891034126 -0.12355432659387589 -0.15966841578483582 -0.0952053964138031 -0.14413166046142578 -0.011041698046028614 -0.01755438931286335 0.21772636473178864 -0.1736157089471817 -0.015419038012623787 0.041057027876377106 0.1674656718969345 -0.06854788213968277 0.10054579377174377 0.0053214807994663715 -0.1805752068758011 0.12468017637729645 -0.15700921416282654 0.06030430644750595 0.06069521605968475 0.10148076713085175 0.11511646956205368 0.021354593336582184 0.10660874843597412 -0.17562642693519592 0.2152986377477646 -0.027526061981916428 -0.06475499272346497 -0.06963732093572617 -0.0906229019165039 0.032738037407398224 0.12226668745279312 0.11522507667541504 -0.1000158041715622 0.09592390805482864 -0.12423519790172577 -0.08003189414739609 -0.1443455070257187 -0.1187574490904808 0.030745893716812134 0.13098712265491486 -0.010860315524041653 0.06195271760225296 0.20418734848499298 0.18831473588943481 -0.07472144067287445 -0.07221446931362152 0.0879000574350357 -0.16264867782592773 0.029339689761400223 -0.11548557877540588 0.03837452456355095 -0.2134135365486145 -0.04845229163765907 0.15695902705192566 -0.20088927447795868 0.21417714655399323 -0.1358904093503952 -0.08653395622968674 0.12361287325620651 -0.13495852053165436 0.09509243816137314 0.1885281205177307 0.15856096148490906 -0.09226497262716293 0.1079750657081604 -0.12552441656589508 0.0032102195546031 0.14395733177661896 0.035425204783678055 0.06730060279369354 -0.138421431183815 -0.18574699759483337 -0.1691526621580124 -0.12958744168281555 0.04837847501039505 0.0737941563129425 0.18431156873703003 -0.1575406789779663 -0.08355312794446945 0.20153723657131195 -0.08444156497716904 0.15279611945152283 0.17030176520347595 -0.19725830852985382 0.16284912824630737 -0.060048073530197144 -0.10155034065246582 0.08771035820245743
HAS_DEPENDENCY -0.05951213836669922 -0.12968645989894867 -0.006422795355319977 0.08925238251686096 0.14473308622837067 -0.051759641617536545 -0.1656164973974228 0.004609871655702591 -0.13180267810821533 -0.11049549281597137 -0.154768705368042 0.08162496984004974 -0.007691459730267525 0.1599070131778717 -0.10452727973461151 -0.1749311089515686 0.1510210633277893 0.16632632911205292 -0.16824288666248322 -0.09711084514856339 -0.02883598953485489 0.1838666796684265 -0.04118151590228081 0.1386089026927948 0.11019785702228546 0.13763967156410217 0.0571335069835186 -0.20468221604824066 0.07504250854253769 -0.004756094887852669 0.16092613339424133 -0.1590946912765503 0.13290101289749146 0.12751342356204987 -0.0015268544666469097 -0.17126096785068512 -0.0008253538399003446 0.14519111812114716 0.19810891151428223 0.08450772613286972 -0.11961601674556732 0.15019813179969788 0.020475314930081367 0.09942929446697235 0.07844417542219162 -0.1778607815504074 -0.007007160224020481 0.08314863592386246 0.07262731343507767 0.19196683168411255 0.13607017695903778 0.11518223583698273 -0.15264469385147095 0.06535601615905762 0.18896880745887756 0.1656786948442459 -0.15951919555664062 -0.10870849341154099 0.06186164543032646 -0.07197538763284683 0.0777055099606514 -0.1890922337770462 -0.13742999732494354 -0.11750689148902893 0.12296996265649796 0.11889536678791046 0.11967518925666809 -0.10942219942808151 0.07150977104902267 0.16047963500022888 0.03841402381658554 0.058060161769390106 0.15195564925670624 -0.013838084414601326 -0.047690510749816895 0.027703505009412766 -0.10735622048377991 -0.11644192785024643 -0.13672633469104767 -0.21059629321098328 -0.1348695605993271 0.20849411189556122 0.1657053381204605 0.09237711876630783 -0.1405489444732666 -0.12286442518234253 0.037299156188964844 -0.09506285935640335 -0.2110508382320404 0.0890490710735321 -0.1936616599559784 -0.11561822146177292 0.15581682324409485 0.20484325289726257 -0.16238173842430115 -0.1772473305463791 -0.1892843246459961 -0.12132026255130768 0.08115413039922714 -0.00730210030451417
HAS_IMPACT 0.11389034241437912 0.13901974260807037 -0.1433006227016449 0.20133787393569946 0.20773960649967194 0.1940753161907196 -0.037734173238277435 0.11559734493494034 -0.048503804951906204 -0.21258847415447235 -0.1088489219546318 0.1804155707359314 -0.17436277866363525 0.061524368822574615 -0.18630625307559967 0.11874400079250336 0.10960619151592255 -0.18185389041900635 -0.1544342190027237 0.046559982001781464 -0.13720816373825073 -0.136729896068573 -0.05567588657140732 0.133096382021904 0.15386004745960236 0.21154849231243134 -0.04107283800840378 -0.07651694118976593 -0.07660593092441559 -0.013340676203370094 -0.07875583320856094 0.12213767319917679 0.03177684172987938 0.05022863671183586 0.12677599489688873 0.19119101762771606 0.007325202226638794 -0.11294793337583542 -0.0037413393147289753 0.04430205747485161 0.1939496397972107 -0.11113964021205902 -0.01824438013136387 -0.10511593520641327 -0.016516689211130142 0.16494886577129364 0.1195703074336052 -0.06235598400235176 -0.16403819620609283 -0.15538080036640167 0.15391294658184052 -0.04847731068730354 0.06705616414546967 0.1812448650598526 0.01338101364672184 0.17806001007556915 0.05564168468117714 0.13222596049308777 0.00766912242397666 0.06537065654993057 -0.11543453484773636 0.07772796601057053 0.07454727590084076 0.11111781001091003 -0.19704772531986237 -0.03007097914814949 0.03208523988723755 -0.1677633672952652 -0.1386323869228363 0.0024031875655055046 0.06559176743030548 -0.05389711260795593 0.015035857446491718 -0.2073555588722229 0.045443493872880936 -0.16420070827007294 0.08585185557603836 0.047416023910045624 -0.16654765605926514 0.18059790134429932 -0.04040477052330971 -0.18242871761322021 -0.19295749068260193 -0.12560877203941345 0.2059672325849533 0.09136030077934265 -0.2005893886089325 0.011603127233684063 -0.06219160556793213 -0.029614200815558434 0.11950751394033432 -0.04106425866484642 -0.11467868089675903 -0.15573541820049286 0.1279003620147705 -0.13185808062553406 -0.08085565268993378 0.020038871094584465 0.14204180240631104 -0.19099068641662598
HAS_OPERATION -0.05795279145240784 0.0443597137928009 -0.15163587033748627 0.1828567236661911 -0.043248653411865234 0.048448435962200165 0.08321651071310043 0.10327693819999695 -0.12196771800518036 -0.1025170087814331 0.15656422078609467 0.16424869000911713 -0.09370813518762589 -0.15269967913627625 0.12057717889547348 -0.20124934613704681 0.08684108406305313 -0.12271726876497269 -0.005091794300824404 0.12459328770637512 -0.011958667077124119 0.1481691300868988 0.04455965757369995 -0.04431316629052162 -0.08527979254722595 0.08217618614435196 -0.10686004906892776 0.06396938860416412 0.0012421216815710068 -0.2100798785686493 -0.030849169939756393 0.004020224325358868 0.056924331933259964 -0.08546588569879532 -0.032594867050647736 -0.162293940782547 -0.07936295866966248 -0.1719910353422165 -0.09668125957250595 0.04064200073480606 -0.07756208628416061 0.03242425248026848 -0.002626655623316765 0.055420827120542526 -0.13813449442386627 0.025120722129940987 0.03763313964009285 0.17118562757968903 -0.03416883945465088 0.07556836307048798 0.2042514681816101 -0.18469876050949097 0.00047534084296785295 0.023370442911982536 -0.010054267011582851 -0.07419876754283905 -0.17144566774368286 0.02404499053955078 -0.019460076466202736 0.003540159435942769 0.15599535405635834 0.019263872876763344 0.16763269901275635 0.035207729786634445 -0.0858306959271431 -0.07324188947677612 0.004604451823979616 0.09258849173784256 -0.1111772209405899 -0.030724667012691498 -0.03885827958583832 0.18041236698627472 -0.13126936554908752 -0.18374323844909668 -0.20370005071163177 0.11176872998476028 -0.16846974194049835 -0.20630815625190735 0.08439038693904877 -0.07049525529146194 -0.029107030481100082 0.01290895789861679 -0.1684383749961853 0.1429804116487503 -0.08857636898756027 -0.05394165590405464 -0.060108013451099396 -0.058080725371837616 0.1392054259777069 0.08697275817394257 -0.05529171600937843 -0.13687369227409363 0.07546944916248322 -0.062238555401563644 -0.07306332886219025 -0.1230502724647522 0.18913038074970245 0.13247746229171753 0.06563597917556763 -0.07634615898132324
HAS_SUBOPERATION 0.18128390610218048 0.019189070910215378 0.03640458360314369 -0.09485533833503723 0.01744239777326584 0.037320952862501144 0.15179118514060974 0.10981808602809906 -0.17859643697738647 -0.1318332403898239 0.0711604431271553 0.12962456047534943 0.08307603746652603 -0.1322556585073471 0.20297634601593018 0.034697525203228 0.016952523961663246 0.0717845931649208 -0.1682218760251999 0.06200521066784859 -0.008845951408147812 0.1247222051024437 -0.11131341755390167 -0.054918836802244186 0.01645389012992382 0.12292657047510147 0.1219317689538002 -0.006058418657630682 0.056191470474004745 0.13027088344097137 -0.143687441945076 -0.13180647790431976 -0.011459648609161377 0.08826575428247452 0.02282571606338024 0.18975090980529785 -0.17055048048496246 0.020738510414958 0.10111870616674423 -0.1391591578722 -0.06463760137557983 -0.19301703572273254 -0.20186935365200043 -0.020368849858641624 -0.09528487920761108 0.13332600891590118 0.1641152948141098 -0.15551204979419708 0.09776981920003891 -0.013636414892971516 0.15999892354011536 -0.18351437151432037 -0.0009653365705162287 0.07425247877836227 -0.1838291585445404 -0.08627960085868835 -0.16561435163021088 0.03775807470083237 -0.03640343248844147 -0.08391775190830231 -0.14291702210903168 -0.019354313611984253 0.15924808382987976 0.17623674869537354 0.1327778398990631 -0.03748898580670357 0.06850537657737732 0.0458981916308403 -0.04505462199449539 -0.20338517427444458 -0.020463792607188225 0.00617936858907342 -0.1643630862236023 0.18881739675998688 -0.0578622929751873 0.07339033484458923 -0.05298476293683052 -0.07022009789943695 0.05205581709742546 -0.18811307847499847 0.010531672276556492 -0.16036304831504822 -0.03570336475968361 -0.19284969568252563 -0.030817488208413124 -0.1094939187169075 -0.12182121723890305 0.1376478523015976 0.031685929745435715 -0.20708754658699036 0.011698951944708824 0.08265869319438934 0.09374582767486572 -0.04554014652967453 -0.12989138066768646 0.016098888590931892 0.1791209876537323 0.1445816457271576 0.027320420369505882 -0.06782005727291107
JUDGE_BY -0.029274482280015945 0.1993815153837204 0.13909129798412323 0.10071608424186707 -0.06378509104251862 0.17715542018413544 0.017466187477111816 0.09112057089805603 -0.05495505407452583 -0.1742553561925888 0.16657786071300507 0.1750994622707367 0.02584831789135933 -0.111793152987957 0.11120301485061646 0.20861414074897766 -0.1272813081741333 0.029116638004779816 0.016612527891993523 -0.043115027248859406 -0.0698237419128418 -0.04229309782385826 0.05306519567966461 -0.08929801732301712 -0.0960317924618721 0.19142018258571625 0.03207365423440933 0.05623660609126091 -0.17168985307216644 0.08128335326910019 0.18375208973884583 -0.18762487173080444 -0.03617692366242409 0.13563615083694458 -0.16070231795310974 0.15528571605682373 -0.05517910420894623 -0.11103982478380203 -0.01598658412694931 0.19605180621147156 -0.13992856442928314 -0.01804472878575325 -0.19879864156246185 0.06798890233039856 0.12401507049798965 -0.10720053315162659 -0.10269934684038162 -0.012941720895469189 -0.1761007457971573 -0.06428629159927368 0.12314216792583466 -0.16605833172798157 -0.15713274478912354 0.023070160299539566 -0.15240859985351562 0.019231395795941353 0.1847367286682129 0.10305092483758926 0.07068071514368057 0.10778149217367172 0.11585354059934616 -0.12601545453071594 0.028101064264774323 -0.09938889741897583 0.1456373780965805 -0.21230068802833557 -0.20896495878696442 0.03352006524801254 -0.04491453245282173 0.03640911728143692 0.008984172716736794 -0.1627749353647232 -0.0939093604683876 -0.16434067487716675 4.70405793748796e-05 -0.052639190107584 -0.011176654137670994 0.11395741254091263 -0.06689734011888504 0.1456117331981659 -0.00034709146711975336 0.018341895192861557 0.11180386692285538 0.18150144815444946 -0.13667850196361542 -0.0060609630309045315 -0.025485634803771973 -0.1091553121805191 0.038027770817279816 -0.1407991647720337 -0.16697362065315247 -0.04316579923033714 0.11640690267086029 0.16590167582035065 0.05688881874084473 -0.07009033858776093 0.1179983988404274 -0.1634289175271988 0.014329827390611172 -0.14949095249176025
MATCH 0.11523154377937317 0.16870026290416718 0.007537003606557846 0.0009119377937167883 -0.038819730281829834 0.009908639825880527 -0.09987135976552963 0.03424765169620514 -0.1699203997850418 -0.14163553714752197 0.1841600239276886 -0.1722995787858963 -0.12910549342632294 0.014967448078095913 -0.0719524547457695 0.14679214358329773 -0.0411759614944458 0.053983621299266815 -0.19422554969787598 -0.11125130951404572 0.13125234842300415 0.10567934066057205 -0.0551992692053318 0.018107879906892776 -0.05488962307572365 0.014868314377963543 0.2074669450521469 0.06384922564029694 -0.16907526552677155 -0.02162526547908783 0.07310429960489273 0.1644328534603119 -0.07646259665489197 0.08228719234466553 -0.017455410212278366 -0.1278245449066162 0.03485483676195145 -0.004097668454051018 0.056162647902965546 0.03264900669455528 -0.1349935233592987 0.04473801329731941 0.17052105069160461 0.17846550047397614 -0.11103897541761398 -0.17928065359592438 0.15132705867290497 -0.1676897257566452 -0.15308599174022675 0.21285128593444824 -0.02692137472331524 -0.016956249251961708 0.006506223231554031 0.02436526119709015 0.030219262465834618 0.010685143992304802 0.03462803736329079 0.019844843074679375 0.060957543551921844 -0.16603149473667145 0.1888333112001419 -0.19401471316814423 -0.07004211097955704 -0.09185327589511871 0.02174597792327404 0.18109920620918274 0.04132672771811485 0.13828983902931213 -0.15393343567848206 0.20559591054916382 0.061351560056209564 -0.0047067916020751 -0.06099993363022804 0.05459422990679741 0.10966666042804718 -0.03167862072587013 0.13775251805782318 -0.13164013624191284 -0.06046229600906372 -0.09009981155395508 0.004438868723809719 -0.040259890258312225 -0.1911424696445465 0.2009890228509903 0.15277579426765442 -0.10849570482969284 -0.023251278325915337 0.12288034707307816 -0.18268917500972748 -0.0974816307425499 0.023093750700354576 0.11131663620471954 -0.0833297148346901 0.03005124069750309 0.07721823453903198 -0.16181428730487823 -0.15329928696155548 -0.15414327383041382 -0.055831216275691986 0.16714531183242798
MEASURE 0.0637061670422554 -0.14064684510231018 -0.14961449801921844 0.16673292219638824 0.09161800891160965 -0.19444264471530914 0.08551947772502899 0.10887131094932556 0.05849507451057434 0.03843974322080612 0.07233889400959015 -0.19542557001113892 -0.2172514796257019 -0.10646919906139374 0.020392637699842453 -0.12306825816631317 -0.028679411858320236 0.1538870632648468 0.21288134157657623 -0.09769885987043381 0.1264697015285492 0.08507795631885529 -0.19016002118587494 0.017000384628772736 0.1913667619228363 -0.1670469045639038 0.1012246310710907 0.059289950877428055 -0.17550894618034363 0.1407141089439392 -0.08065967261791229 -0.0018003899604082108 0.0716625452041626 0.17387135326862335 0.05019810050725937 -0.14152704179286957 0.12412583827972412 0.07195226848125458 0.12946775555610657 -0.09024877101182938 0.09728633612394333 -0.10061798989772797 0.06899497658014297 0.17712315917015076 -0.0641188845038414 0.11596572399139404 0.08945687115192413 0.2010187804698944 -0.021234355866909027 -0.18924076855182648 -0.07694031298160553 -0.09332289546728134 -0.1577499657869339 0.05389980971813202 -0.14986741542816162 0.050702739506959915 -0.009269583970308304 0.17892907559871674 0.1350783407688141 -0.16639678180217743 -0.01590188592672348 0.17849139869213104 -0.057956669479608536 -0.20962700247764587 0.02613282948732376 -0.039242781698703766 0.03394316881895065 0.2087976336479187 0.07620435208082199 0.12735269963741302 0.14547665417194366 -0.1766149252653122 0.10899066179990768 0.22331403195858002 -0.1062062606215477 -0.14098723232746124 -0.08454107493162155 -0.04006747156381607 0.029165104031562805 -0.11955495178699493 -0.08973626047372818 0.0926390290260315 0.1311054229736328 -0.19141224026679993 -0.0357959121465683 -0.020095672458410263 0.14521446824073792 -0.019794991239905357 -0.0704471617937088 -0.015288395807147026 0.2225433737039566 -0.1694416105747223 -0.061261869966983795 -0.14140979945659637 0.0004380544414743781 -0.16981196403503418 0.21335257589817047 0.0203779935836792 -0.0394522063434124 -0.04229167476296425
POSSIBLE_SET -0.08649590611457825 -0.1828715056180954 -0.028674686327576637 -0.05341661721467972 0.1888115555047989 0.017133105546236038 -0.14131566882133484 0.13001281023025513 -0.11204689741134644 -0.08574298024177551 -0.06506969779729843 -0.10227062553167343 0.18269866704940796 -0.03740517422556877 0.21423183381557465 0.023196835070848465 0.1254010945558548 -0.2099008858203888 -0.11840302497148514 -0.17224350571632385 -0.012380318716168404 0.18903985619544983 0.2209327518939972 0.15604925155639648 0.00044070708099752665 -0.17633341252803802 0.1545761227607727 0.12988995015621185 -0.12551093101501465 -0.045539721846580505 0.10527043789625168 0.041801005601882935 -0.18431711196899414 0.13576249778270721 0.1532810777425766 -0.030555937439203262 -0.027930866926908493 -0.046125736087560654 0.03775367885828018 0.043045684695243835 0.13587480783462524 -0.09881459921598434 -0.19130711257457733 -0.02572024241089821 0.22234812378883362 0.13037197291851044 0.19415883719921112 0.2128596305847168 0.054934062063694 0.11619444191455841 -0.05497753620147705 -0.016174599528312683 0.17657911777496338 -0.044078391045331955 -0.1835608035326004 -0.18325376510620117 -0.10282223671674728 -0.0574253611266613 0.1318957358598709 -0.06703276187181473 -0.1794833391904831 -0.17496497929096222 -0.1382896900177002 0.10760127753019333 -0.13131123781204224 0.1782127022743225 0.1351618468761444 -0.009774587117135525 0.01565597578883171 0.045400604605674744 -0.133832186460495 -0.08859023451805115 -0.1686924248933792 -0.1901198923587799 -0.10622575134038925 -0.044313326478004456 -0.05989197641611099 -0.02874770015478134 -0.12190353870391846 -0.2079169750213623 0.090240977704525 -0.19539500772953033 -0.126388281583786 0.011774563230574131 -0.05445475876331329 0.09496322274208069 -0.09288067370653152 -0.013994913548231125 0.11360462009906769 0.018963847309350967 -0.14989514648914337 0.07634330540895462 -0.028592655435204506 0.16843314468860626 0.13178767263889313 0.2286958396434784 0.09616239368915558 -0.14682169258594513 -0.10889332741498947 -0.13970889151096344
RELATE 0.09732197970151901 0.16609184443950653 0.18364055454730988 0.12353741377592087 0.1059325709939003 -0.172202005982399 -0.03153112530708313 -0.14176549017429352 0.07647431641817093 -0.19700513780117035 0.06443668901920319 -0.15577389299869537 -0.08675360679626465 -0.1391093134880066 0.026270553469657898 0.1875368058681488 -0.12092173099517822 -0.07301916927099228 0.05649818480014801 -0.12615254521369934 0.10051658004522324 0.19969622790813446 -0.1689426153898239 0.051315948367118835 0.10369951277971268 -0.183928981423378 -0.08615968376398087 -0.06679442524909973 -0.11701346188783646 -0.06095166504383087 -0.12757262587547302 -0.15512299537658691 -0.07871361076831818 -0.19645899534225464 -0.12756629288196564 -0.19128932058811188 0.0886821523308754 -0.014692340977489948 -0.022813573479652405 -0.18552802503108978 0.19349506497383118 -0.13577626645565033 -0.06361990422010422 0.0976039245724678 -0.07282624393701553 -0.07901789993047714 0.14374136924743652 -0.011842655017971992 -0.15536008775234222 0.16280050575733185 0.16303090751171112 -0.05717708542943001 -0.14455193281173706 -0.17144125699996948 -0.08904121816158295 -0.1954922080039978 -0.12813615798950195 -0.02696598507463932 -0.17135126888751984 0.05078558996319771 0.021647538989782333 -0.15170784294605255 0.1803862452507019 -0.058100778609514236 0.15383847057819366 -0.055342137813568115 0.007863403297960758 -0.08587769418954849 0.13327918946743011 0.16426296532154083 0.19755972921848297 0.10046977549791336 0.038019441068172455 -0.06431935727596283 0.14570313692092896 -0.10280246287584305 0.000785637297667563 -0.14884941279888153 0.006371347699314356 -0.11071335524320602 -0.13844995200634003 -0.11137580126523972 0.18482743203639984 -0.1420954167842865 -0.01711336337029934 0.19877205789089203 -0.05703869089484215 0.16834652423858643 0.15067972242832184 0.07067704200744629 0.05779420584440231 -0.18081465363502502 -0.04695449024438858 0.0013912415597587824 0.08788586407899857 0.16687831282615662 -0.031985096633434296 0.19710758328437805 0.1354815661907196 -0.019584503024816513
SATISFY -0.1663331538438797 0.13011008501052856 0.02162230759859085 -0.16911977529525757 -0.01402390655130148 0.07946869730949402 -0.18692469596862793 0.1463741660118103 0.008928840979933739 0.03170016407966614 0.01384739764034748 -0.09699266403913498 0.049529511481523514 -0.1877059042453766 -0.04970014840364456 0.030103391036391258 -0.0022911005653440952 -0.11440318822860718 -0.1481257975101471 0.12759511172771454 -0.14741888642311096 0.11993114650249481 0.06863820552825928 -0.05700870603322983 -0.07125535607337952 -0.0785018801689148 -0.09804892539978027 -0.12562192976474762 0.11542797088623047 -0.10158823430538177 0.11873262375593185 -0.06119566038250923 0.06591933220624924 0.2001400738954544 0.0076585509814321995 0.07624714821577072 0.16105346381664276 -0.06820563971996307 -0.10963012278079987 -0.040027908980846405 -0.182413250207901 -0.2044457346200943 0.015414468012750149 -0.025173643603920937 -0.04646143317222595 0.06824029237031937 0.10033270716667175 -0.0769973024725914 0.15936197340488434 -0.1432029753923416 0.09884011000394821 0.011160268448293209 0.15635617077350616 -0.10384483635425568 0.04380277171730995 -0.07856692373752594 0.1525868922472 0.14427928626537323 0.005614293739199638 0.15304838120937347 -0.1766911894083023 0.08387891203165054 0.10021661221981049 -0.072724848985672 -0.10205923020839691 0.1896379590034485 0.1663195788860321 -0.09878289699554443 -0.1971375197172165 0.0637805387377739 -0.030354423448443413 0.10438645631074905 0.17193563282489777 0.17102226614952087 0.028789762407541275 0.041132912039756775 -0.17536689341068268 0.08946499973535538 0.04957520589232445 0.008278575725853443 -0.09629882127046585 0.1182205006480217 0.07716110348701477 0.15183506906032562 -0.0991867259144783 -0.09611702710390091 -0.00418267073109746 -0.13878965377807617 0.003343289252370596 -0.09871083498001099 0.14262895286083221 -0.1873112916946411 0.10429979115724564 -0.11511305719614029 0.19504618644714355 0.09370062500238419 -0.060513753443956375 0.024891873821616173 0.1776954084634781 -0.052469752728939056
SET -0.20318056643009186 0.0980866551399231 0.16681931912899017 -0.15588384866714478 0.14476899802684784 0.0015075922710821033 0.19315190613269806 -0.19761253893375397 0.1873171180486679 -0.19431062042713165 0.1717221438884735 -0.1383553147315979 -0.07219303399324417 -0.1599656641483307 0.02011386677622795 0.09809566289186478 0.16960467398166656 0.09049656242132187 -0.03925217315554619 0.1467052400112152 0.05893109366297722 -0.12746016681194305 -0.08269290626049042 0.03289634361863136 -0.03723732754588127 0.010534447617828846 0.07993592321872711 -0.08495359867811203 0.026315750554203987 0.18726105988025665 0.20486681163311005 -0.16965140402317047 -0.13875964283943176 0.12725180387496948 -0.10415258258581161 -0.19821657240390778 -0.06854059547185898 -0.1461380273103714 0.1318146139383316 -0.029741855338215828 -0.1683903932571411 -0.009437584318220615 -0.16563843190670013 0.04094546288251877 -0.15122711658477783 0.12924711406230927 0.05638984218239784 -0.11161530762910843 0.13678652048110962 -0.047382108867168427 -0.2028762400150299 -0.07060593366622925 0.18279080092906952 -0.06315980851650238 0.08184662461280823 -0.07831232994794846 0.14363408088684082 0.07729953527450562 0.1730814278125763 0.03972676396369934 0.09251783043146133 -0.09082203358411789 0.00011470133904367685 -0.19028329849243164 -0.06347408890724182 0.048663534224033356 -0.1381966918706894 0.16920770704746246 0.17205116152763367 -0.1828882247209549 0.04224028438329697 0.08128339052200317 0.1589101403951645 0.12240394949913025 0.1902729570865631 -0.1082887202501297 -0.10119897872209549 0.039023879915475845 0.11694644391536713 -0.05127580836415291 -0.11951606720685959 0.1590953916311264 -0.17382796108722687 -0.0399288572371006 0.17960421741008759 0.02701837755739689 -0.020002199336886406 -0.09338441491127014 0.08655330538749695 0.04499749466776848 -0.10746683925390244 0.17092475295066833 0.03462464362382889 0.1864013671875 -0.026545876637101173 0.06538243591785431 0.14733226597309113 -0.15149635076522827 -0.10029546916484833 0.00697230314835906
TRIGGER -0.026753079146146774 0.0005143667804077268 -0.10305830836296082 -0.059028200805187225 0.16952799260616302 -0.1490761935710907 0.09001102298498154 -0.07738921791315079 0.16488036513328552 -0.13102449476718903 0.13656122982501984 0.18465666472911835 -0.13748939335346222 -0.03596193343400955 -0.004229083191603422 -0.2044045627117157 0.08532990515232086 -0.19807729125022888 -0.018591444939374924 0.15163688361644745 0.11950424313545227 0.040497228503227234 0.20169682800769806 0.03587380424141884 -0.17483334243297577 0.10279279202222824 -0.005876039154827595 -0.0566563718020916 -0.09430845826864243 0.1492760181427002 -0.1415882557630539 -0.07158955186605453 -0.10226519405841827 -0.01849472150206566 0.20266465842723846 -0.1441115438938141 0.14890947937965393 -0.047833044081926346 0.062267646193504333 -0.19901905953884125 -0.16434407234191895 0.1738390177488327 -0.15445001423358917 0.19508960843086243 0.08587245643138885 0.18882550299167633 -0.15450993180274963 0.1530483514070511 0.18791551887989044 -0.21318726241588593 -0.020128348842263222 -0.1998562514781952 -0.12103965133428574 0.1739145815372467 -0.007906826213002205 -0.12089040130376816 0.1214766576886177 -0.11148521304130554 -0.021740924566984177 0.17310693860054016 0.19783702492713928 0.14645445346832275 -0.13653041422367096 -0.10348077118396759 -0.015572772361338139 -0.005695852916687727 0.059086356312036514 0.17782211303710938 0.19735103845596313 -0.1424475908279419 0.00957401655614376 0.18503591418266296 -0.2037671059370041 -0.08250170946121216 -0.031053533777594566 0.16505151987075806 -0.06346005946397781 0.20377379655838013 0.15618954598903656 0.12019073218107224 0.14265218377113342 -0.15615303814411163 -0.12207750231027603 0.0822850689291954 0.1721857488155365 -0.1413031816482544 0.10799308866262436 -0.09529998898506165 0.009709745645523071 0.21201466023921967 0.20048964023590088 -0.15921151638031006 0.16965068876743317 0.026110922917723656 -0.009228904731571674 0.10275200009346008 -0.15383072197437286 -0.0948624238371849 0.2077185958623886 -0.05978894978761673
USE 0.16918915510177612 0.09758371114730835 -0.02234829030930996 0.05331869050860405 0.0013375041307881474 -0.18841776251792908 0.08641756325960159 0.044249389320611954 0.08483092486858368 0.039826516062021255 0.025495586916804314 0.20425744354724884 -0.053506068885326385 0.056209247559309006 -0.006941798608750105 -0.1814221441745758 -0.008608750067651272 -0.041363537311553955 -0.07532069087028503 0.19217745959758759 -0.09464902430772781 0.13529254496097565 -0.21634900569915771 -0.08500852435827255 0.07527996599674225 0.13972079753875732 0.165166974067688 0.18245412409305573 0.005476333666592836 0.20176954567432404 -0.07850853353738785 0.0943090170621872 -0.14561931788921356 -0.03480064868927002 -0.20728161931037903 0.016268806532025337 -0.02093551866710186 -0.00367924221791327 -0.0801016092300415 -0.084642693400383 -0.11433016508817673 0.07970016449689865 0.08977595716714859 -0.08918697386980057 0.1715763360261917 0.126315638422966 0.16679568588733673 -0.15398827195167542 -0.14190220832824707 -0.05559537932276726 -0.19468393921852112 0.06527666002511978 0.05344073846936226 -0.0007381580071523786 -0.12910234928131104 -0.17675232887268066 0.09492585062980652 0.11080019176006317 0.15650856494903564 0.009040315635502338 0.022132642567157745 -0.10190838575363159 0.06454304605722427 -0.20163995027542114 -0.19638186693191528 0.09745263308286667 -0.09741644561290741 -0.19878825545310974 0.03508712723851204 -0.19275057315826416 -0.14400595426559448 0.10896973311901093 0.12599419057369232 0.034455470740795135 -0.13978758454322815 0.09068834781646729 0.05911631137132645 0.012619167566299438 -0.10980604588985443 -0.08033570647239685 -0.046283379197120667 0.06548695266246796 -0.11398353427648544 -0.08224649727344513 -0.12823531031608582 0.10153378546237946 0.20483021438121796 -0.14355245232582092 -0.05866182595491409 -0.11496150493621826 0.11072807759046555 0.14768698811531067 0.01842946745455265 -0.024463878944516182 -0.15422005951404572 -0.18649081885814667 0.039406146854162216 0.12652461230754852 0.020833820104599 -0.1313224881887436
